{
  "input_nodes": 5,
  "hidden_nodes": [
    10
  ],
  "output_nodes": 2,
  "layers": [
    5,
    10,
    2
  ],
  "totalLayers": 3,
  "weights": [
    {
      "rows": 10,
      "cols": 5,
      "data": [
        [
          -4.706195137780697,
          2.033342509601159,
          -1.8052496784716658,
          0.9571717839333238,
          2.7068140082694265
        ],
        [
          -2.637245768878356,
          0.923394256075575,
          -0.9900536238730804,
          -1.8384190486966006,
          -0.14189011242370078
        ],
        [
          -0.05188463860386894,
          -3.564496491932155,
          -0.029827795884769526,
          0.5718775736573463,
          -0.3148144714494544
        ],
        [
          -0.3766880267902712,
          -2.091483203156978,
          -2.2388539045713864,
          1.4630525875912186,
          0.3040099575530826
        ],
        [
          0.2293067516763238,
          3.2247897355639386,
          2.070534811728742,
          1.3478088104687447,
          -0.8387873146328094
        ],
        [
          -6.87818423051477,
          -0.0941785523164246,
          1.5839983084447,
          2.4777716495006965,
          -2.918060045084935
        ],
        [
          -6.277933123176496,
          0.49467774958505956,
          2.3742337962659064,
          -2.6864452456791907,
          1.5457738712586535
        ],
        [
          2.5121645693373402,
          1.1708189240675715,
          -0.029139159118653668,
          -0.24128338974209879,
          0.7401403121904261
        ],
        [
          -1.8057848581575608,
          -2.3413862217938424,
          0.05776835755726145,
          0.7391191160140356,
          -3.1302101258707307
        ],
        [
          -1.7514545639132884,
          1.4561947428313198,
          0.6965231268969043,
          -1.7253558855156534,
          -2.838172616103894
        ]
      ]
    },
    {
      "rows": 2,
      "cols": 10,
      "data": [
        [
          -0.5177406413515596,
          4.492977724279747,
          -3.2701575875608193,
          2.5505793207907215,
          0.37603775266296907,
          -5.650772104451284,
          0.25639049195833197,
          -1.23873432212497,
          1.7484426817831764,
          4.9384930347955125
        ],
        [
          2.0564639826089928,
          -0.8806998688223971,
          0.10782089044788068,
          -2.222295330510515,
          0.36530899800692185,
          0.5425885241860497,
          1.131996784968678,
          -0.4147459762502855,
          0.3679572272030561,
          -4.557520913049147
        ]
      ]
    }
  ],
  "bias": [
    {
      "rows": 10,
      "cols": 1,
      "data": [
        [
          3.2235620102275435
        ],
        [
          0.42270158585165385
        ],
        [
          -2.258407524215046
        ],
        [
          -0.8567950413742182
        ],
        [
          -2.6146289510799985
        ],
        [
          -0.10551516496531638
        ],
        [
          -2.084400990621795
        ],
        [
          0.7616399701657646
        ],
        [
          4.55689598227369
        ],
        [
          0.915636520276786
        ]
      ]
    },
    {
      "rows": 2,
      "cols": 1,
      "data": [
        [
          0.8307491985232509
        ],
        [
          0.6093434358109993
        ]
      ]
    }
  ],
  "learning_rate": 0.1,
  "activation_function": {}
}
